<?xml version="1.0"?>
<opencv_storage>
<!-- Created using Computer Vision Toolbox(tm) for MATLAB(R) -->
<!-- Version 9.7.0.1247435 (R2019b) Update 2 -->
<!-- Compatible with OpenCV 3.4 -->
<cascade>
  <stageType>BOOST</stageType>
  <featureType>HOG</featureType>
  <height>32</height>
  <width>80</width>
  <stageParams>
    <boostType>GAB</boostType>
    <minHitRate>9.9500000476837158e-01</minHitRate>
    <maxFalseAlarm>1.0000000149011612e-01</maxFalseAlarm>
    <weightTrimRate>9.4999999999999996e-01</weightTrimRate>
    <maxDepth>1</maxDepth>
    <maxWeakCount>100</maxWeakCount></stageParams>
  <featureParams>
    <maxCatCount>0</maxCatCount>
    <featSize>36</featSize></featureParams>
  <stageNum>4</stageNum>
  <stages>
    <!-- stage 0 -->
    <_>
      <maxWeakCount>6</maxWeakCount>
      <stageThreshold>-9.9282187223434448e-01</stageThreshold>
      <weakClassifiers>
        <_>
          <internalNodes>
            0 -1 20 8.1045135855674744e-02</internalNodes>
          <leafValues>
            -9.3247270584106445e-01 6.5573769807815552e-01</leafValues></_>
        <_>
          <internalNodes>
            0 -1 16 3.8578393869102001e-03</internalNodes>
          <leafValues>
            6.6713941097259521e-01 -7.7871567010879517e-01</leafValues></_>
        <_>
          <internalNodes>
            0 -1 13 4.9390237778425217e-02</internalNodes>
          <leafValues>
            -8.3507531881332397e-01 5.9218168258666992e-01</leafValues></_>
        <_>
          <internalNodes>
            0 -1 27 2.9059907421469688e-02</internalNodes>
          <leafValues>
            -7.8284639120101929e-01 5.2937018871307373e-01</leafValues></_>
        <_>
          <internalNodes>
            0 -1 31 3.8717165589332581e-02</internalNodes>
          <leafValues>
            -9.1275691986083984e-01 4.8954480886459351e-01</leafValues></_>
        <_>
          <internalNodes>
            0 -1 14 1.9182004034519196e-02</internalNodes>
          <leafValues>
            -8.4274733066558838e-01 4.1948640346527100e-01</leafValues></_></weakClassifiers></_>
    <!-- stage 1 -->
    <_>
      <maxWeakCount>9</maxWeakCount>
      <stageThreshold>-9.6259456872940063e-01</stageThreshold>
      <weakClassifiers>
        <_>
          <internalNodes>
            0 -1 30 1.4137217774987221e-02</internalNodes>
          <leafValues>
            3.0612245202064514e-01 -8.6621314287185669e-01</leafValues></_>
        <_>
          <internalNodes>
            0 -1 5 1.2739298865199089e-02</internalNodes>
          <leafValues>
            -7.8425365686416626e-01 4.0428090095520020e-01</leafValues></_>
        <_>
          <internalNodes>
            0 -1 15 1.3004655018448830e-02</internalNodes>
          <leafValues>
            3.4302565455436707e-01 -8.7010562419891357e-01</leafValues></_>
        <_>
          <internalNodes>
            0 -1 10 3.2482385635375977e-02</internalNodes>
          <leafValues>
            -6.4435482025146484e-01 5.0941073894500732e-01</leafValues></_>
        <_>
          <internalNodes>
            0 -1 1 9.3537084758281708e-03</internalNodes>
          <leafValues>
            -8.3862823247909546e-01 4.0341889858245850e-01</leafValues></_>
        <_>
          <internalNodes>
            0 -1 0 7.9558894038200378e-02</internalNodes>
          <leafValues>
            -6.4923548698425293e-01 4.6189862489700317e-01</leafValues></_>
        <_>
          <internalNodes>
            0 -1 24 2.3847656324505806e-02</internalNodes>
          <leafValues>
            -6.5685677528381348e-01 4.7186443209648132e-01</leafValues></_>
        <_>
          <internalNodes>
            0 -1 17 3.8486763834953308e-02</internalNodes>
          <leafValues>
            -7.5297439098358154e-01 4.1132813692092896e-01</leafValues></_>
        <_>
          <internalNodes>
            0 -1 22 1.7517553642392159e-02</internalNodes>
          <leafValues>
            -7.7082896232604980e-01 3.7642219662666321e-01</leafValues></_></weakClassifiers></_>
    <!-- stage 2 -->
    <_>
      <maxWeakCount>10</maxWeakCount>
      <stageThreshold>-6.9578790664672852e-01</stageThreshold>
      <weakClassifiers>
        <_>
          <internalNodes>
            0 -1 21 1.7418188508599997e-03</internalNodes>
          <leafValues>
            5.1926606893539429e-01 -7.6679104566574097e-01</leafValues></_>
        <_>
          <internalNodes>
            0 -1 32 6.6792465746402740e-02</internalNodes>
          <leafValues>
            -7.6280075311660767e-01 4.2601829767227173e-01</leafValues></_>
        <_>
          <internalNodes>
            0 -1 28 2.8154337778687477e-02</internalNodes>
          <leafValues>
            -7.3728209733963013e-01 3.9548137784004211e-01</leafValues></_>
        <_>
          <internalNodes>
            0 -1 11 3.9169982075691223e-02</internalNodes>
          <leafValues>
            -8.2042181491851807e-01 3.7451267242431641e-01</leafValues></_>
        <_>
          <internalNodes>
            0 -1 2 2.5086086243391037e-02</internalNodes>
          <leafValues>
            -6.6426366567611694e-01 4.8974251747131348e-01</leafValues></_>
        <_>
          <internalNodes>
            0 -1 23 1.6831580549478531e-02</internalNodes>
          <leafValues>
            -7.3932194709777832e-01 4.0318733453750610e-01</leafValues></_>
        <_>
          <internalNodes>
            0 -1 12 5.6207608431577682e-02</internalNodes>
          <leafValues>
            -8.0838429927825928e-01 3.1107777357101440e-01</leafValues></_>
        <_>
          <internalNodes>
            0 -1 3 1.9433207809925079e-02</internalNodes>
          <leafValues>
            -5.7041215896606445e-01 5.0173181295394897e-01</leafValues></_>
        <_>
          <internalNodes>
            0 -1 18 3.0806127935647964e-02</internalNodes>
          <leafValues>
            -8.1550431251525879e-01 2.6968929171562195e-01</leafValues></_>
        <_>
          <internalNodes>
            0 -1 10 3.8440778851509094e-02</internalNodes>
          <leafValues>
            -5.9460341930389404e-01 3.8489660620689392e-01</leafValues></_></weakClassifiers></_>
    <!-- stage 3 -->
    <_>
      <maxWeakCount>10</maxWeakCount>
      <stageThreshold>3.5976397991180420e-01</stageThreshold>
      <weakClassifiers>
        <_>
          <internalNodes>
            0 -1 29 1.1356821283698082e-02</internalNodes>
          <leafValues>
            7.4750828742980957e-01 -6.5789473056793213e-01</leafValues></_>
        <_>
          <internalNodes>
            0 -1 7 6.7776717245578766e-02</internalNodes>
          <leafValues>
            -4.7797775268554688e-01 7.1895807981491089e-01</leafValues></_>
        <_>
          <internalNodes>
            0 -1 14 1.7535589635372162e-02</internalNodes>
          <leafValues>
            -7.2397869825363159e-01 4.5692983269691467e-01</leafValues></_>
        <_>
          <internalNodes>
            0 -1 4 5.7349912822246552e-03</internalNodes>
          <leafValues>
            4.3214827775955200e-01 -6.0642576217651367e-01</leafValues></_>
        <_>
          <internalNodes>
            0 -1 9 3.6302007734775543e-02</internalNodes>
          <leafValues>
            -8.2204401493072510e-01 3.1594061851501465e-01</leafValues></_>
        <_>
          <internalNodes>
            0 -1 25 4.2223148047924042e-02</internalNodes>
          <leafValues>
            -7.2967767715454102e-01 3.4051349759101868e-01</leafValues></_>
        <_>
          <internalNodes>
            0 -1 8 9.0105086565017700e-02</internalNodes>
          <leafValues>
            -5.3830683231353760e-01 4.6645984053611755e-01</leafValues></_>
        <_>
          <internalNodes>
            0 -1 19 3.5144641995429993e-02</internalNodes>
          <leafValues>
            -6.1667943000793457e-01 5.1874941587448120e-01</leafValues></_>
        <_>
          <internalNodes>
            0 -1 6 3.1577423214912415e-02</internalNodes>
          <leafValues>
            -3.7804153561592102e-01 6.5944182872772217e-01</leafValues></_>
        <_>
          <internalNodes>
            0 -1 26 9.2169996351003647e-03</internalNodes>
          <leafValues>
            -8.0326378345489502e-01 3.4770315885543823e-01</leafValues></_></weakClassifiers></_></stages>
  <features>
    <_>
      <rect>
        0 16 8 8 31</rect></_>
    <_>
      <rect>
        8 12 8 8 34</rect></_>
    <_>
      <rect>
        12 16 8 8 2</rect></_>
    <_>
      <rect>
        20 16 8 8 6</rect></_>
    <_>
      <rect>
        36 16 8 8 34</rect></_>
    <_>
      <rect>
        44 12 8 8 27</rect></_>
    <_>
      <rect>
        44 12 8 8 28</rect></_>
    <_>
      <rect>
        64 16 8 8 21</rect></_>
    <_>
      <rect>
        36 0 8 16 22</rect></_>
    <_>
      <rect>
        4 4 16 8 21</rect></_>
    <_>
      <rect>
        4 8 16 8 11</rect></_>
    <_>
      <rect>
        4 16 16 8 30</rect></_>
    <_>
      <rect>
        8 16 16 8 22</rect></_>
    <_>
      <rect>
        12 12 16 8 3</rect></_>
    <_>
      <rect>
        12 12 16 8 24</rect></_>
    <_>
      <rect>
        12 12 16 8 29</rect></_>
    <_>
      <rect>
        16 16 16 8 28</rect></_>
    <_>
      <rect>
        24 12 16 8 3</rect></_>
    <_>
      <rect>
        24 12 16 8 12</rect></_>
    <_>
      <rect>
        28 0 16 8 32</rect></_>
    <_>
      <rect>
        28 16 16 8 22</rect></_>
    <_>
      <rect>
        32 12 16 8 26</rect></_>
    <_>
      <rect>
        36 12 16 8 28</rect></_>
    <_>
      <rect>
        40 12 16 8 33</rect></_>
    <_>
      <rect>
        44 8 16 8 6</rect></_>
    <_>
      <rect>
        44 12 16 8 13</rect></_>
    <_>
      <rect>
        48 0 16 8 9</rect></_>
    <_>
      <rect>
        48 0 16 8 23</rect></_>
    <_>
      <rect>
        48 8 16 8 5</rect></_>
    <_>
      <rect>
        16 0 16 16 33</rect></_>
    <_>
      <rect>
        32 0 16 16 23</rect></_>
    <_>
      <rect>
        8 0 32 16 30</rect></_>
    <_>
      <rect>
        8 0 32 16 31</rect></_></features></cascade>
</opencv_storage>
